15 100
the -0.0004242524 -0.00045591829 0.0034152805 0.002187106 0.00489311 0.00187854 -0.0018276424 -0.0033061632 -0.00028138328 0.0030948098 0.004336933 -0.0037722548 0.0005775957 -0.0010336165 -0.0030103943 0.004524972 0.00444502 -0.0006472381 0.001110885 -0.0033302542 -0.0034901465 -0.004879633 -0.0041397996 0.004013379 0.00093777146 0.004872705 -0.0038378907 -0.00024368249 -0.0018277329 -0.0012938982 0.004650981 0.0022856013 0.00062972645 0.00057488366 -0.0032703069 0.0029170087 0.004260025 -0.00418944 0.0010947061 0.0002991754 0.003253175 -0.0009365116 -0.00469875 0.0010272968 0.0026802968 -0.0032758939 -0.001050207 0.0010044731 0.0014111319 -0.0008305382 -0.0011861338 -0.0048279376 0.0030751918 0.002940768 -0.0015485492 0.0035386232 0.002267789 -0.00045949957 -0.001239086 -0.0049051284 0.001016488 -0.00013053842 0.002624958 0.00023083549 -0.0027011181 -0.002470776 -0.00031553314 0.0031859695 0.0030923316 0.0017886506 0.0010647335 -0.0045197075 -0.004839702 -0.004994826 0.004100347 -0.00036466587 0.0035934323 0.002448543 -6.0807733e-06 -0.001258072 -0.00020056758 -0.002288856 -0.00016728244 -0.0016775314 -0.0028538476 -0.0047486466 -0.0013259505 -0.00039754173 0.0025191053 -0.004092176 0.00081866176 0.0016211071 -0.0011356849 -0.0015383998 -0.0041981577 -0.003200529 0.0038782652 -0.0020721576 -0.0047342 -0.0018546893
quick -0.0033773843 -0.0034532857 0.00276118 -0.0030331716 0.0008635958 -0.00024615915 -0.0034605118 -0.0020907735 -0.0049525714 -0.0015930748 0.0016041835 0.00080267526 0.0012061624 -0.0005054247 -0.0011735407 0.0033355176 0.0018633159 0.00446384 -8.599881e-06 0.0042335256 -0.0026900393 -0.002160607 0.003110196 -0.0042660413 0.004423535 0.0018674899 -0.0006234849 0.0028551714 0.004762077 -0.00033983245 0.002121793 0.0047949026 -0.0006098485 0.0017518408 -0.0025885496 0.0016177814 -0.0009523111 0.0015727777 -0.0045054476 0.002362116 -0.00041955357 0.0030919823 0.0008886369 0.00048192363 0.0027956222 -0.00018238452 0.0018691072 0.0011000474 0.0024991084 0.0018227664 -0.0007374706 0.0014129855 -0.004675647 0.0010480593 0.0019016546 -0.003981516 0.004995162 0.00021313856 -0.003558932 -0.00048768404 -0.0046897028 -0.0032890951 -0.004270279 -0.0048041875 -0.004184898 -0.0029226094 -0.004175969 -0.0020025477 0.0028201968 -0.0023416693 -0.0023203606 0.00091103 -5.7791312e-05 -0.0024273617 0.0022782586 -0.0019877558 0.003873453 -0.002845222 -0.0025467924 -0.0018805898 -0.00019296934 -0.00022679189 -0.004696813 0.0015726927 -0.0022902796 -0.004639806 -0.0043318523 0.0035367555 -0.0019791822 -0.0012392155 0.004380482 0.0005636224 0.0028501058 0.0004282885 0.00011364969 -0.0048541934 -0.003756634 -0.0038803187 5.909791e-05 -0.003224316
brown 0.0042352094 -0.0014118488 5.6396788e-05 0.0038426234 -0.0044260505 0.0009785502 0.004193741 0.0006760166 0.0034152765 0.0006778573 0.00036624575 0.0038635558 -0.00060930173 -0.0043140263 0.0012683652 -0.0042433823 -0.00110711 -0.00055982027 0.0042800666 0.0034278487 0.0006353419 -0.0032644093 -0.0025918568 -0.00044564763 0.0029418287 0.0040863873 -0.00494586 0.0043048123 0.002179639 -0.0017576729 -0.0037044545 -0.00024737293 0.0015523426 -0.001712322 0.00023963898 0.0031057794 -0.003782734 -0.0039120074 -0.0022152886 -0.0036230702 -0.0037044995 0.00027750866 -0.0020726086 0.0040243478 -0.004315415 -0.0028082845 0.0012387038 -0.0045393314 -0.0005961784 -0.0044123787 0.0024502985 -0.004839633 -0.0008983365 -0.003002779 0.0011910485 -0.004131952 0.0035570648 -0.004760243 -0.0015561578 -0.0009802382 -0.002262798 0.0006136087 0.0013191663 -0.0024883973 -8.6487256e-05 9.6447446e-05 0.0025936288 -0.0016021802 6.1239894e-05 0.004060027 0.002451338 -0.0042831246 -0.0033017434 0.002933655 0.00017489663 -0.002401616 0.0024248501 0.0013152151 0.0012574382 -0.0027717266 0.0007624268 0.0041342173 -0.0046706405 -0.0045706634 -0.0026029153 0.0046276613 0.0038700823 0.0041021514 0.0022920028 0.0011866353 0.003925258 0.0016328514 -0.004246729 -0.0037261946 0.001459411 -0.0023020096 -0.003562571 -0.0049493266 0.00473893 0.003073018
fox 0.0019685682 -0.0029458192 -0.0031137466 0.0032874802 -0.003048072 0.0024326157 0.002191124 1.8898196e-05 -1.0338735e-05 -0.0029745845 -0.0037072017 -0.004875063 0.0029440217 0.0025485489 -0.0041780714 -0.003930737 0.0023788232 -0.0026533317 -0.0030213776 -0.00011970166 0.00038421043 0.0041819587 -0.0004503547 0.0030314492 -0.0016603104 0.00029753387 0.0011696487 0.0018868406 -0.004358294 0.0029451544 -0.00064737065 0.0024014174 -0.002915269 -2.8296412e-05 -0.0020016949 0.0030924892 0.004803635 0.001514677 -0.00019661663 -0.0004237481 0.0038715242 -0.0021458457 -0.00020006034 -0.0013926327 -0.0037056988 -0.00085493736 -0.002507761 -0.0005875795 -0.0033367777 0.00035339833 0.0021995706 -0.0037747058 -0.0001700796 -0.0036954796 0.004820452 -0.00069002947 0.0012830176 -0.0017163355 0.0028611508 -0.0001039957 -0.0008998133 -0.002265567 -0.002158038 -0.0020898418 -0.001619183 -0.0023191753 -0.0037549564 0.0039716125 0.00069375173 0.0016971243 -0.0020389853 0.004405522 -0.0005146616 0.0010382697 -0.002343746 -0.003806118 -0.0012091172 0.004083246 0.0032165928 0.0049753487 -0.0029443656 -0.000702093 0.00093361543 0.00040868108 -0.003055071 0.0011110283 -9.87632e-05 -0.0047895485 -0.00079913234 0.0016764957 0.00016888558 -8.691029e-06 0.0047667352 -0.0030593486 0.0022832593 -0.0039320095 0.0021695874 0.0038639342 -0.0009213478 -0.0014789507
jumps 0.0036059127 -0.0029294202 0.0045299986 -0.0044977674 0.0021951231 0.0014816937 -0.002342286 0.001173924 -0.0024851619 -0.0040938477 -0.0020145273 -0.004993705 -0.0011156221 -0.0023163361 -0.003558604 -0.0027124465 0.0037613804 -0.0041266303 -0.004283526 -0.003142194 -0.0027705003 0.0014629442 0.0031535015 -0.0034043668 -0.0031080903 0.001987842 -0.0037395763 -0.0017418559 0.0030613814 -0.00347363 -0.004261938 0.0013677897 0.0022740322 -0.0043072645 0.00023785913 0.00365269 -0.0034439412 -0.00038761192 0.0018704184 0.0037366946 -0.004274713 0.0028691494 -0.0036802837 -0.0042128037 0.002199124 -0.004543944 0.0031074325 -0.0016156897 0.0046546934 0.0029428757 0.0005744431 -0.0011420699 -0.0015140761 0.00088464434 -0.0010450874 0.0034713421 0.00011776879 -0.003790961 0.0049794395 -0.004049569 -0.004155739 0.0016696263 -0.004155864 0.0001986351 0.0007130999 -0.0049845115 -0.0017583738 0.0016604472 0.00035586936 -0.00075906276 -0.0037121524 -0.0032031774 0.003410428 0.0031299968 0.0015272002 0.0038444798 -0.0037412879 0.0020759117 0.0021299412 0.0023393917 -0.0011464808 0.004854032 0.0028699655 -0.0020934714 0.00078303734 0.0027638038 0.0027338983 0.0045473417 -8.432241e-05 0.0022721859 -0.00464373 -0.0006812699 0.0047748047 0.0018478472 0.0016676071 -0.0026014978 -0.003897992 0.003651643 -0.0034033582 -0.0040044426
over 0.0022251864 -0.0040483424 0.0024140736 -0.0048116073 0.0013862863 -0.003396464 0.0025059131 0.0049151536 0.0035692833 0.00023589852 -0.0024913584 0.0001305643 0.0044357 -0.002668013 -0.0049266755 0.0008531938 -0.0037224186 -0.0022330452 -0.0015956666 0.0019228938 0.0042098803 -0.0046594944 0.0038038075 -0.0017466368 0.0005938196 0.00026300276 -0.0016714975 -0.00041271021 0.000344208 0.003221455 0.0020757497 0.0013166189 -0.00406204 -0.0041156043 -0.00034479395 -0.00023145642 -0.003333918 -0.00041052658 -0.0021887494 -0.0043877824 0.0010661455 0.0037226386 -0.0047616987 -0.0006136798 -0.0009969764 -0.001679278 0.0033645746 0.00067871617 -0.0023494423 -0.0012047925 -0.0011016293 -0.004704092 0.0038286299 0.00499817 0.0020961517 0.0027052136 -0.0008862671 -0.0034290492 -0.0008535225 -0.00122924 0.0022519496 0.0035521402 0.0005465711 -0.0008433869 3.8522092e-05 -0.00036346327 -0.0013749538 -0.0043758843 0.0011440322 -0.0036188667 -0.0046318904 0.00097539846 -0.0032524546 0.0030144898 0.00080314645 -0.0037284207 -0.002186845 0.004220113 -0.004786614 -0.0028370868 0.0035058267 0.0031791707 0.003680606 -3.9637256e-05 0.000828711 -0.0032271815 -0.0022483678 0.00028465394 0.0005670099 0.0047701886 -0.003693831 0.004558388 -0.004190051 -0.0036689397 -0.001117095 -0.0046614525 0.001172276 -0.0033611422 -0.0010775723 -0.0047242222
lazy 0.0034572785 -0.004840479 0.003820205 0.003899323 0.0017559885 0.0024320942 -0.0016320761 0.0038252096 0.0007843528 -0.001035006 -0.0044347416 0.0015018311 -0.0026366517 -0.0037196227 0.0013258704 0.0026344687 -0.0036787328 -0.00071885285 0.0027084372 0.0044135638 9.323603e-06 -0.004953948 -0.004193551 -0.0033641574 -0.003719717 0.0019312478 -0.0026648794 -0.0047349096 0.00043858768 0.0045189625 0.002255612 0.002514947 -0.0047703874 0.0013339331 -0.0043902313 -0.004222736 0.0001374842 0.0041013965 0.001122002 -0.0027001689 -0.0015634261 -7.613965e-05 -0.0033597017 0.0021668728 0.0010272538 0.0016648239 -0.0018481236 -0.0028971208 -0.0046841316 -0.00038233137 -0.0013527012 -0.004398062 -0.002860213 0.0014590897 -0.004056222 -0.0028781604 0.004226472 -0.0009630314 0.00067847694 0.000989714 0.0018598896 0.0017124439 0.004259378 0.004945474 -7.188454e-05 0.00058111193 -0.0020353077 -0.004942965 0.0012892218 -0.0004788526 0.0039324034 -0.004113915 -0.0030810128 -0.004743418 0.0010880417 0.0013370587 0.004178364 0.0015307855 -0.0038136842 -0.0042909887 0.000227907 0.003532233 -0.0030717573 0.0045805974 -0.0038083498 0.0012325752 0.0004451522 0.0016916313 -0.0018030445 0.00044053048 -0.0023592552 0.0023966741 0.0014555915 -0.00060736336 0.004245874 0.0022997677 -0.0005180549 0.0004229892 -0.0034480677 0.0034949277
dogs -0.0027730279 -0.0013873108 0.0022333327 -0.00081165764 0.0031311377 -0.0041251136 -0.002510253 -0.0013703841 0.0020752053 0.0038881563 -0.0044756494 -0.0023577919 -8.621932e-05 0.0037673446 -0.0021762028 -0.0043071904 0.004762963 0.0034277479 -0.0032568132 -0.001199322 -0.004653302 0.0015230551 0.0003618071 -0.0008906002 -0.003971264 0.0029564262 -0.0040142443 -0.0011584945 0.0034322774 0.0029371304 0.0017941751 -0.0017313184 0.0012860851 0.002743423 0.0013893055 0.00493226 -0.0032397087 -0.0008783806 0.0024138172 -0.001868371 0.0037170427 6.729442e-05 -0.0025426757 -9.908967e-05 0.0021071911 -0.00043509694 -0.0008681395 0.004878415 -0.00047892114 -0.0033063574 0.0044435747 -0.0003576322 -0.00175882 0.001303312 -0.004698894 0.0033169081 -0.002270298 0.0009145441 0.00091434264 0.0023594107 -0.0032893266 -0.00035573737 -0.0049155746 -0.002727388 0.00393845 -0.0038828552 -0.0031276173 0.0021815717 0.0024801223 0.0031493902 -0.00178898 0.0038156533 0.003753736 -0.0008590784 -0.0028548343 0.0008982268 -0.0033796509 -0.004752684 -0.0016843077 -0.001544175 0.004378271 0.0037143347 -0.0030231213 0.0021175607 0.0045344336 -0.00061913 -0.0035884015 0.0044690846 -0.0021614197 -0.0031532305 -0.0035141571 0.0026283842 -0.003254288 0.004515599 -0.00061555614 0.0007930634 -0.0025761984 0.0005293495 0.0034904385 -0.0036377164
yoyoyo -0.00090661633 -0.0006818066 0.0005712564 -0.0044619557 -0.0033897313 -0.0029014256 -0.0048522786 0.002116476 -0.003237958 -0.0018990794 0.0049916874 -0.0029289606 -0.0026800726 -0.0014821183 -0.004095317 -0.0025802904 0.001617773 7.089728e-05 -0.0030908876 0.0009556347 -3.2660685e-06 -0.0031553647 -0.0013443963 -0.0013901993 -0.0011721525 -0.0007655803 -0.0030526805 -0.0020550666 -0.0022845461 0.0041253213 -0.0007877069 -0.0011674638 0.0023051254 -0.0013666325 -0.00015779621 0.0020448067 -0.0031037098 -0.0041881236 0.004567309 -0.00079481 -0.002032551 0.0005582791 0.0028777262 0.0034251153 0.004077895 0.004493308 -0.000572187 0.0015541093 0.0033108739 -0.0037687414 0.0047241854 0.0035191139 -0.0029896735 0.0020743804 0.0023205148 -0.0005824755 0.0030347698 -0.001937147 -0.0030076832 -0.0021942703 0.0035240322 -0.0031551032 0.0013386069 0.0033665118 0.004521685 -0.0047180094 -0.004822895 0.00012873947 0.0040369458 0.0013724352 -7.601879e-05 -0.0039191716 0.0028653224 -0.00080803357 0.0029357334 -0.00011100779 0.0040884833 0.0014025599 -0.0048494255 0.0048083845 0.00024681943 0.004797892 0.00089974777 0.0014116962 -0.00042874363 0.004657559 -0.0010512407 0.00049604493 0.0038362478 -0.0004127646 0.0011392842 -0.0014665814 -0.0032078966 -0.004432057 0.004146554 -0.0039533665 -0.0035469476 -0.004401045 0.0012253787 0.0038809273
you -0.0022231904 -0.0014038091 -0.001980477 -0.004072 0.0032907291 -0.0046298937 -0.0029597387 -0.0015595767 -0.0013521941 -0.0006295839 0.0019611323 0.003795156 0.002926959 -0.002486499 0.00066728826 0.00064275635 0.0006287692 0.0012131821 -0.0030812637 0.004909933 -0.0032120743 0.0042000753 0.004601564 -0.0013205342 -0.0032731232 0.004540983 0.0049312967 0.00045338273 0.0006060752 -0.0023715643 0.0019816577 -0.0037747019 -0.0026755284 0.0016992595 -0.004030778 0.0025168497 -0.0027332483 0.00035536106 0.004644878 0.0038312431 0.00097182585 -0.0017005422 0.0022326654 0.0018453881 0.0036657904 0.0025515081 -0.0021241428 0.003899118 -0.002732289 0.004716328 0.002521191 0.0010409526 0.003499773 -0.0047983276 -0.0047178217 0.0013704448 -0.004275212 -0.0034291865 0.0012565057 0.0026744513 0.0026047677 -0.0030833033 0.0011052308 -0.0023318462 -0.00045414874 -0.003011522 0.0043836064 0.004152969 0.0041331686 -0.0037310438 0.0035679732 0.0023302662 -0.0034041773 -0.0023428258 -0.00088248635 -0.000839964 0.004032121 -0.0047256486 0.0043280143 -0.0028812792 -0.0008681141 -0.0013192657 -0.0020523947 -0.001588442 0.0014585516 -0.0020911857 -0.0036171302 -0.004281853 0.0018733122 0.004532185 0.0033210285 0.0011737914 0.003988839 0.0050006537 0.0004126069 0.0011249117 0.002847458 0.0026465915 -0.0022903576 -0.0027456067
go 0.0008724991 -0.0044322903 -0.0007719476 -0.0017693274 -0.0033131773 0.0023940194 -0.0038656134 -0.0016706871 0.0013343431 -0.0047640326 0.0037487715 -0.0013946636 0.0025884926 -0.003336143 0.0042130644 0.0044832984 -0.0024158508 -0.0048660813 0.00010596551 0.0027462097 0.0012777372 0.0025917224 0.0045543876 0.0012385248 -0.002616592 -0.0034707468 -0.00251045 -0.0017397858 0.0017455746 0.0015833902 -0.0044072564 -0.004956566 -0.00018840468 0.0008792317 -0.002132666 -0.0037165682 -0.002718627 -0.0011708316 0.000483595 -0.0004685663 0.0032911117 0.003158496 0.0040451316 0.003626065 0.0038172505 0.0027281418 0.0006574605 -0.00449796 0.0014543222 0.0030386527 -0.002093691 0.0029555764 -0.0019349578 -0.0030646836 -0.0021421046 -0.0008040038 0.0012695412 0.0024389648 -0.00075226324 -0.003661778 -0.0022799128 0.0031916818 0.0008056529 -0.003038358 -0.0026797242 0.000255756 -0.0024000613 -0.004519161 -0.0034961752 -0.00048519616 0.0021879405 -0.0025933823 0.0016853488 -0.0035829854 0.0038473743 0.002293036 -0.0032571943 -0.0032145253 0.0044825054 0.004614692 -0.0010509213 0.001781393 -0.0038573637 0.0039260825 -0.0011829655 0.0038129028 -0.004113136 0.0026620713 -0.0010074624 0.0011384155 -0.0031504794 0.00015156747 0.0037810928 -0.0044146283 -0.0034745475 -0.0030059628 -0.0039352565 -0.00012572359 0.00071098644 -0.004130526
home -0.003154443 -0.0022758157 -0.0023486326 0.0048121884 0.00438236 0.0001429763 -0.00212728 0.0022867618 0.003946054 -0.002648727 0.0022427195 -0.0036053378 -0.003074832 0.0043958267 -0.0006486834 0.0016192384 0.002617371 0.0019276055 0.0033633932 -0.0022375728 -0.003033618 0.0024692186 -0.0022294426 0.00304204 0.0046541463 0.002845863 -0.0028470857 -0.0014973562 -0.0026958068 0.004532572 0.0027312809 0.004171268 0.0046179486 0.0017750139 0.003643132 -0.003073963 -0.0007124245 0.002487129 -0.00376521 -0.0005079302 0.0012900453 -0.0015491681 -0.0041501285 -0.0014168714 0.0019967787 0.0014408546 -0.0043368135 0.004055284 0.000107169064 -0.0018467525 0.0029775654 0.0035652348 0.0035428444 0.0021855186 -0.003432977 0.00074139354 -0.000435689 0.00046799408 0.0009904425 0.004090718 0.0014300367 0.00021387216 0.00029420198 0.0039535593 -0.0019467542 0.0018612148 0.0018043161 -0.0033236803 0.0006797686 -0.0007762935 0.0014598138 -0.0031636956 0.003741574 0.003650098 0.0029504113 0.00023039615 0.0025583056 -0.001254209 0.004146735 0.0043303333 -0.004102586 -0.0017238689 -0.0027386763 0.00061157066 -0.0033775503 0.0047003375 -0.00020521643 -0.0031137993 -0.0034067188 0.0046008 0.0011795557 -0.003144928 -0.001993366 -0.0048800833 -0.0005781851 0.0036771256 -0.00038523567 -0.004616156 0.002067732 -0.0034972937
now -0.0020711657 -0.004917341 0.0019395456 -0.0045241737 0.0020358954 -0.0004411406 0.00024609175 0.001558528 0.0032360738 -0.003821819 -0.004943871 -0.004708474 -0.00026962842 -0.00024548237 0.0017963181 -0.0040570637 0.003884888 -0.00024525443 0.0027485727 0.0038427727 0.0009127736 0.004881479 0.0047020204 0.0009615527 0.0036444052 -0.004689065 -0.0018945555 0.0014880049 -0.00018312252 -0.0014995827 -0.003636613 -0.0027987475 0.0032457928 -0.0005615218 -0.004128138 -0.0023450963 0.001109182 -0.0022488262 -0.004623511 -0.0045927865 -0.001971434 0.0011887917 0.0025310693 0.0029168585 -0.003981998 0.0038363242 0.00060267345 -0.0003777811 -0.00049725705 0.0032973366 0.0010236704 0.004137358 0.004831022 -0.0042770477 -0.00034660625 0.00068154413 0.0022185165 -0.0023678103 0.004213723 0.0038820882 -0.0016539855 0.0032975944 -0.0010907382 -0.00031104436 0.00424533 -5.041744e-05 -0.0028729439 -0.0029965588 -0.0017117334 0.0023298378 0.003009932 -0.0036702724 0.0039271247 0.0013185471 0.0033575622 -0.0016099744 -0.0047026337 -0.0015192339 -0.0010812613 0.0011285444 0.004111893 0.0030240873 0.003985263 -0.0024046176 -0.004925118 -0.0029649232 0.0013111794 -0.0016578545 0.0016833158 0.002836911 5.6597608e-05 -0.00052775076 0.000459408 0.00403543 1.2617901e-05 -0.0029393171 0.0003594665 0.00036409125 -0.0012479627 -0.0033927714
to -0.00061899546 -0.004433499 0.0030800845 -0.0031032376 -0.0030055048 0.0027972471 -0.0023323495 -0.0036097255 -0.0043717325 -0.004059974 0.0013367818 -0.0019601304 0.003710587 0.0011241952 0.0014323266 0.002352976 -0.002957084 0.0041587586 -0.0032230206 0.0005038274 4.9268234e-05 -0.0038259206 -0.0024143755 -0.0023833981 0.0032771088 -0.0026825313 -0.0010846895 -0.003876899 -0.0022835985 0.0033107772 -0.002521349 -0.0031174372 0.0029078089 -8.8567006e-08 -0.0025113903 0.004320766 -0.0003461881 -0.0017858153 -0.000764937 -0.0023196808 -0.0009971427 0.004989022 -0.0018459485 -0.00188118 -0.004770364 -0.004364289 0.0035605012 0.00080244604 -0.0021111567 0.0040107 -0.004893819 -0.00096078357 -0.0048649916 -0.0038968245 -0.003198998 -0.0032557002 0.00022392817 -0.0028850182 -0.0016705373 -0.0019577013 0.0030780681 0.003698745 0.00017052333 -0.0029434476 0.0035959957 0.004184289 0.004664252 -0.002344554 -0.002048909 -0.003380741 -0.0049663805 0.00018027841 -0.0027397056 0.0039869254 -0.0043099397 -0.0026847946 -0.0041675037 0.0039031697 -0.003341453 0.0009350089 -0.0035031228 -0.0022522279 0.0020583733 0.0033905907 0.0021201659 -0.0031593754 -0.0032338712 -0.00040544127 -0.0030149175 -0.004666176 -0.0035721173 -5.2903044e-05 0.0038807057 -0.0013664477 0.0022683023 -0.0030195534 -0.003830402 0.002043705 0.004344681 0.004569603
sleep 0.0004209105 -0.00149163 -0.00030954808 -0.0024504757 -0.0016490979 0.0048927255 -0.0024129949 -0.0024002837 -2.1487456e-05 0.00048446906 0.0017379737 -0.0018491867 -0.0011077242 0.0045238985 0.00010349809 0.0036757768 -0.0019003802 -0.0035170754 0.002383147 -0.0022184723 0.00048480474 -0.0013731592 -1.179676e-05 0.004700022 -0.0016851133 0.002562032 -0.0040998776 -0.0010232669 8.811879e-05 0.0034387414 0.0008957909 -0.0033463272 -0.0038230487 -0.0009326078 0.00031383603 0.0024578033 -0.0025437798 -0.0046980157 -0.0016157143 0.0030467254 0.0043100435 0.00071014167 0.00029344586 0.00063633063 0.0015509166 -0.0026058091 0.001053849 -0.0036370214 0.0023642739 0.002097047 0.0014550216 -0.0015274601 -0.0034531564 0.0046773963 0.0046314336 -0.0014052604 -0.0018717612 -0.004192322 0.0015945866 -0.00072536874 -0.0028947042 -0.004540648 0.0036290304 -0.002829047 0.0027465438 -0.0015857761 -0.0038205099 0.0013301122 0.0002028774 0.0032315946 -0.0011557877 -0.0014119439 0.0017756274 0.0034996187 -0.004077541 0.0036534807 -0.0019217393 0.0020244431 -0.002072432 -0.001743162 -0.00027526234 -0.0034377323 0.0017572691 -0.004942039 -0.0046038474 0.003414847 0.001021206 -0.0038281868 -0.0035383864 -0.0013562796 0.0042689005 -0.00455353 0.004330229 -0.004502252 -0.0041384287 0.00028571166 0.001544151 0.0037400266 0.0030498232 -0.0018583239
